digraph Tree {
node [shape=box, style="filled", color="black", fontname="helvetica"] ;
edge [fontname="helvetica"] ;
0 [label="Sex <= 0.309\ngini = 0.473\nsamples = 712\nvalue = [439, 273]\nclass = Not Survived", fillcolor="#f5cfb4"] ;
1 [label="Age_range <= -1.564\ngini = 0.31\nsamples = 465\nvalue = [376, 89]\nclass = Not Survived", fillcolor="#eb9f68"] ;
0 -> 1 [labeldistance=2.5, labelangle=45, headlabel="True"] ;
2 [label="SibSp <= 1.794\ngini = 0.492\nsamples = 32\nvalue = [14, 18]\nclass = Survived", fillcolor="#d3e9f9"] ;
1 -> 2 ;
3 [label="Parch <= 0.147\ngini = 0.105\nsamples = 18\nvalue = [1, 17]\nclass = Survived", fillcolor="#45a3e7"] ;
2 -> 3 ;
4 [label="SibSp <= -0.021\ngini = 0.5\nsamples = 2\nvalue = [1, 1]\nclass = Not Survived", fillcolor="#ffffff"] ;
3 -> 4 ;
5 [label="gini = 0.0\nsamples = 1\nvalue = [1, 0]\nclass = Not Survived", fillcolor="#e58139"] ;
4 -> 5 ;
6 [label="gini = 0.0\nsamples = 1\nvalue = [0, 1]\nclass = Survived", fillcolor="#399de5"] ;
4 -> 6 ;
7 [label="gini = 0.0\nsamples = 16\nvalue = [0, 16]\nclass = Survived", fillcolor="#399de5"] ;
3 -> 7 ;
8 [label="Parch <= 1.388\ngini = 0.133\nsamples = 14\nvalue = [13, 1]\nclass = Not Survived", fillcolor="#e78b48"] ;
2 -> 8 ;
9 [label="gini = 0.0\nsamples = 7\nvalue = [7, 0]\nclass = Not Survived", fillcolor="#e58139"] ;
8 -> 9 ;
10 [label="SibSp <= 3.608\ngini = 0.245\nsamples = 7\nvalue = [6, 1]\nclass = Not Survived", fillcolor="#e9965a"] ;
8 -> 10 ;
11 [label="Age_range <= -2.178\ngini = 0.375\nsamples = 4\nvalue = [3, 1]\nclass = Not Survived", fillcolor="#eeab7b"] ;
10 -> 11 ;
12 [label="Fare_range <= 0.329\ngini = 0.444\nsamples = 3\nvalue = [2, 1]\nclass = Not Survived", fillcolor="#f2c09c"] ;
11 -> 12 ;
13 [label="gini = 0.0\nsamples = 1\nvalue = [1, 0]\nclass = Not Survived", fillcolor="#e58139"] ;
12 -> 13 ;
14 [label="gini = 0.5\nsamples = 2\nvalue = [1, 1]\nclass = Not Survived", fillcolor="#ffffff"] ;
12 -> 14 ;
15 [label="gini = 0.0\nsamples = 1\nvalue = [1, 0]\nclass = Not Survived", fillcolor="#e58139"] ;
11 -> 15 ;
16 [label="gini = 0.0\nsamples = 3\nvalue = [3, 0]\nclass = Not Survived", fillcolor="#e58139"] ;
10 -> 16 ;
17 [label="Cabin <= -0.702\ngini = 0.274\nsamples = 433\nvalue = [362, 71]\nclass = Not Survived", fillcolor="#ea9a60"] ;
1 -> 17 ;
18 [label="Age_range <= 0.894\ngini = 0.458\nsamples = 76\nvalue = [49, 27]\nclass = Not Survived", fillcolor="#f3c6a6"] ;
17 -> 18 ;
19 [label="Cabin <= -1.187\ngini = 0.487\nsamples = 62\nvalue = [36, 26]\nclass = Not Survived", fillcolor="#f8dcc8"] ;
18 -> 19 ;
20 [label="Age_range <= -0.949\ngini = 0.457\nsamples = 48\nvalue = [31, 17]\nclass = Not Survived", fillcolor="#f3c6a6"] ;
19 -> 20 ;
21 [label="gini = 0.0\nsamples = 1\nvalue = [0, 1]\nclass = Survived", fillcolor="#399de5"] ;
20 -> 21 ;
22 [label="Age_range <= -0.335\ngini = 0.449\nsamples = 47\nvalue = [31.0, 16.0]\nclass = Not Survived", fillcolor="#f2c29f"] ;
20 -> 22 ;
23 [label="gini = 0.0\nsamples = 4\nvalue = [4, 0]\nclass = Not Survived", fillcolor="#e58139"] ;
22 -> 23 ;
24 [label="Fare_range <= -0.617\ngini = 0.467\nsamples = 43\nvalue = [27, 16]\nclass = Not Survived", fillcolor="#f4ccae"] ;
22 -> 24 ;
25 [label="gini = 0.0\nsamples = 3\nvalue = [3, 0]\nclass = Not Survived", fillcolor="#e58139"] ;
24 -> 25 ;
26 [label="Cabin <= -2.157\ngini = 0.48\nsamples = 40\nvalue = [24, 16]\nclass = Not Survived", fillcolor="#f6d5bd"] ;
24 -> 26 ;
27 [label="Fare_range <= 0.329\ngini = 0.497\nsamples = 13\nvalue = [6, 7]\nclass = Survived", fillcolor="#e3f1fb"] ;
26 -> 27 ;
28 [label="gini = 0.0\nsamples = 1\nvalue = [1, 0]\nclass = Not Survived", fillcolor="#e58139"] ;
27 -> 28 ;
29 [label="Parch <= 0.147\ngini = 0.486\nsamples = 12\nvalue = [5, 7]\nclass = Survived", fillcolor="#c6e3f8"] ;
27 -> 29 ;
30 [label="Fare_range <= 0.802\ngini = 0.496\nsamples = 11\nvalue = [5, 6]\nclass = Survived", fillcolor="#deeffb"] ;
29 -> 30 ;
31 [label="Embarked <= 0.204\ngini = 0.375\nsamples = 4\nvalue = [1, 3]\nclass = Survived", fillcolor="#7bbeee"] ;
30 -> 31 ;
32 [label="gini = 0.0\nsamples = 1\nvalue = [0, 1]\nclass = Survived", fillcolor="#399de5"] ;
31 -> 32 ;
33 [label="gini = 0.444\nsamples = 3\nvalue = [1, 2]\nclass = Survived", fillcolor="#9ccef2"] ;
31 -> 33 ;
34 [label="SibSp <= -0.021\ngini = 0.49\nsamples = 7\nvalue = [4, 3]\nclass = Not Survived", fillcolor="#f8e0ce"] ;
30 -> 34 ;
35 [label="Cabin <= -2.642\ngini = 0.375\nsamples = 4\nvalue = [3, 1]\nclass = Not Survived", fillcolor="#eeab7b"] ;
34 -> 35 ;
36 [label="gini = 0.0\nsamples = 2\nvalue = [2, 0]\nclass = Not Survived", fillcolor="#e58139"] ;
35 -> 36 ;
37 [label="Age_range <= 0.28\ngini = 0.5\nsamples = 2\nvalue = [1, 1]\nclass = Not Survived", fillcolor="#ffffff"] ;
35 -> 37 ;
38 [label="gini = 0.0\nsamples = 1\nvalue = [0, 1]\nclass = Survived", fillcolor="#399de5"] ;
37 -> 38 ;
39 [label="gini = 0.0\nsamples = 1\nvalue = [1, 0]\nclass = Not Survived", fillcolor="#e58139"] ;
37 -> 39 ;
40 [label="Cabin <= -2.642\ngini = 0.444\nsamples = 3\nvalue = [1, 2]\nclass = Survived", fillcolor="#9ccef2"] ;
34 -> 40 ;
41 [label="gini = 0.0\nsamples = 1\nvalue = [0, 1]\nclass = Survived", fillcolor="#399de5"] ;
40 -> 41 ;
42 [label="gini = 0.5\nsamples = 2\nvalue = [1, 1]\nclass = Not Survived", fillcolor="#ffffff"] ;
40 -> 42 ;
43 [label="gini = 0.0\nsamples = 1\nvalue = [0, 1]\nclass = Survived", fillcolor="#399de5"] ;
29 -> 43 ;
44 [label="Parch <= 0.147\ngini = 0.444\nsamples = 27\nvalue = [18, 9]\nclass = Not Survived", fillcolor="#f2c09c"] ;
26 -> 44 ;
45 [label="SibSp <= 0.886\ngini = 0.48\nsamples = 20\nvalue = [12, 8]\nclass = Not Survived", fillcolor="#f6d5bd"] ;
44 -> 45 ;
46 [label="SibSp <= -0.021\ngini = 0.488\nsamples = 19\nvalue = [11, 8]\nclass = Not Survived", fillcolor="#f8ddc9"] ;
45 -> 46 ;
47 [label="Age_range <= 0.28\ngini = 0.463\nsamples = 11\nvalue = [7, 4]\nclass = Not Survived", fillcolor="#f4c9aa"] ;
46 -> 47 ;
48 [label="Fare_range <= -0.144\ngini = 0.48\nsamples = 5\nvalue = [2, 3]\nclass = Survived", fillcolor="#bddef6"] ;
47 -> 48 ;
49 [label="gini = 0.0\nsamples = 1\nvalue = [0, 1]\nclass = Survived", fillcolor="#399de5"] ;
48 -> 49 ;
50 [label="Cabin <= -1.672\ngini = 0.5\nsamples = 4\nvalue = [2, 2]\nclass = Not Survived", fillcolor="#ffffff"] ;
48 -> 50 ;
51 [label="Embarked <= 0.204\ngini = 0.444\nsamples = 3\nvalue = [1, 2]\nclass = Survived", fillcolor="#9ccef2"] ;
50 -> 51 ;
52 [label="gini = 0.0\nsamples = 1\nvalue = [0, 1]\nclass = Survived", fillcolor="#399de5"] ;
51 -> 52 ;
53 [label="gini = 0.5\nsamples = 2\nvalue = [1, 1]\nclass = Not Survived", fillcolor="#ffffff"] ;
51 -> 53 ;
54 [label="gini = 0.0\nsamples = 1\nvalue = [1, 0]\nclass = Not Survived", fillcolor="#e58139"] ;
50 -> 54 ;
55 [label="Fare_range <= 0.329\ngini = 0.278\nsamples = 6\nvalue = [5, 1]\nclass = Not Survived", fillcolor="#ea9a61"] ;
47 -> 55 ;
56 [label="gini = 0.0\nsamples = 2\nvalue = [2, 0]\nclass = Not Survived", fillcolor="#e58139"] ;
55 -> 56 ;
57 [label="Cabin <= -1.672\ngini = 0.375\nsamples = 4\nvalue = [3, 1]\nclass = Not Survived", fillcolor="#eeab7b"] ;
55 -> 57 ;
58 [label="Fare_range <= 1.039\ngini = 0.444\nsamples = 3\nvalue = [2, 1]\nclass = Not Survived", fillcolor="#f2c09c"] ;
57 -> 58 ;
59 [label="gini = 0.5\nsamples = 2\nvalue = [1, 1]\nclass = Not Survived", fillcolor="#ffffff"] ;
58 -> 59 ;
60 [label="gini = 0.0\nsamples = 1\nvalue = [1, 0]\nclass = Not Survived", fillcolor="#e58139"] ;
58 -> 60 ;
61 [label="gini = 0.0\nsamples = 1\nvalue = [1, 0]\nclass = Not Survived", fillcolor="#e58139"] ;
57 -> 61 ;
62 [label="Cabin <= -1.672\ngini = 0.5\nsamples = 8\nvalue = [4, 4]\nclass = Not Survived", fillcolor="#ffffff"] ;
46 -> 62 ;
63 [label="Fare_range <= 1.748\ngini = 0.444\nsamples = 6\nvalue = [4, 2]\nclass = Not Survived", fillcolor="#f2c09c"] ;
62 -> 63 ;
64 [label="gini = 0.0\nsamples = 1\nvalue = [1, 0]\nclass = Not Survived", fillcolor="#e58139"] ;
63 -> 64 ;
65 [label="Age_range <= 0.28\ngini = 0.48\nsamples = 5\nvalue = [3, 2]\nclass = Not Survived", fillcolor="#f6d5bd"] ;
63 -> 65 ;
66 [label="gini = 0.0\nsamples = 1\nvalue = [1, 0]\nclass = Not Survived", fillcolor="#e58139"] ;
65 -> 66 ;
67 [label="Embarked <= 0.204\ngini = 0.5\nsamples = 4\nvalue = [2, 2]\nclass = Not Survived", fillcolor="#ffffff"] ;
65 -> 67 ;
68 [label="gini = 0.5\nsamples = 2\nvalue = [1, 1]\nclass = Not Survived", fillcolor="#ffffff"] ;
67 -> 68 ;
69 [label="gini = 0.5\nsamples = 2\nvalue = [1, 1]\nclass = Not Survived", fillcolor="#ffffff"] ;
67 -> 69 ;
70 [label="gini = 0.0\nsamples = 2\nvalue = [0, 2]\nclass = Survived", fillcolor="#399de5"] ;
62 -> 70 ;
71 [label="gini = 0.0\nsamples = 1\nvalue = [1, 0]\nclass = Not Survived", fillcolor="#e58139"] ;
45 -> 71 ;
72 [label="SibSp <= -0.021\ngini = 0.245\nsamples = 7\nvalue = [6, 1]\nclass = Not Survived", fillcolor="#e9965a"] ;
44 -> 72 ;
73 [label="gini = 0.0\nsamples = 5\nvalue = [5, 0]\nclass = Not Survived", fillcolor="#e58139"] ;
72 -> 73 ;
74 [label="Cabin <= -1.672\ngini = 0.5\nsamples = 2\nvalue = [1, 1]\nclass = Not Survived", fillcolor="#ffffff"] ;
72 -> 74 ;
75 [label="gini = 0.0\nsamples = 1\nvalue = [1, 0]\nclass = Not Survived", fillcolor="#e58139"] ;
74 -> 75 ;
76 [label="gini = 0.0\nsamples = 1\nvalue = [0, 1]\nclass = Survived", fillcolor="#399de5"] ;
74 -> 76 ;
77 [label="Fare_range <= 0.329\ngini = 0.459\nsamples = 14\nvalue = [5, 9]\nclass = Survived", fillcolor="#a7d3f3"] ;
19 -> 77 ;
78 [label="Age_range <= 0.28\ngini = 0.219\nsamples = 8\nvalue = [1, 7]\nclass = Survived", fillcolor="#55abe9"] ;
77 -> 78 ;
79 [label="gini = 0.0\nsamples = 2\nvalue = [0, 2]\nclass = Survived", fillcolor="#399de5"] ;
78 -> 79 ;
80 [label="gini = 0.278\nsamples = 6\nvalue = [1, 5]\nclass = Survived", fillcolor="#61b1ea"] ;
78 -> 80 ;
81 [label="Age_range <= 0.28\ngini = 0.444\nsamples = 6\nvalue = [4, 2]\nclass = Not Survived", fillcolor="#f2c09c"] ;
77 -> 81 ;
82 [label="gini = 0.0\nsamples = 2\nvalue = [0, 2]\nclass = Survived", fillcolor="#399de5"] ;
81 -> 82 ;
83 [label="gini = 0.0\nsamples = 4\nvalue = [4, 0]\nclass = Not Survived", fillcolor="#e58139"] ;
81 -> 83 ;
84 [label="Fare_range <= 0.329\ngini = 0.133\nsamples = 14\nvalue = [13, 1]\nclass = Not Survived", fillcolor="#e78b48"] ;
18 -> 84 ;
85 [label="Cabin <= -2.4\ngini = 0.375\nsamples = 4\nvalue = [3, 1]\nclass = Not Survived", fillcolor="#eeab7b"] ;
84 -> 85 ;
86 [label="gini = 0.5\nsamples = 2\nvalue = [1, 1]\nclass = Not Survived", fillcolor="#ffffff"] ;
85 -> 86 ;
87 [label="gini = 0.0\nsamples = 2\nvalue = [2, 0]\nclass = Not Survived", fillcolor="#e58139"] ;
85 -> 87 ;
88 [label="gini = 0.0\nsamples = 10\nvalue = [10, 0]\nclass = Not Survived", fillcolor="#e58139"] ;
84 -> 88 ;
89 [label="Pclass <= -0.968\ngini = 0.216\nsamples = 357\nvalue = [313, 44]\nclass = Not Survived", fillcolor="#e99355"] ;
17 -> 89 ;
90 [label="Age_range <= 0.894\ngini = 0.408\nsamples = 21\nvalue = [15, 6]\nclass = Not Survived", fillcolor="#efb388"] ;
89 -> 90 ;
91 [label="Fare_range <= 0.802\ngini = 0.496\nsamples = 11\nvalue = [6, 5]\nclass = Not Survived", fillcolor="#fbeade"] ;
90 -> 91 ;
92 [label="Age_range <= 0.28\ngini = 0.444\nsamples = 6\nvalue = [2, 4]\nclass = Survived", fillcolor="#9ccef2"] ;
91 -> 92 ;
93 [label="gini = 0.0\nsamples = 3\nvalue = [0, 3]\nclass = Survived", fillcolor="#399de5"] ;
92 -> 93 ;
94 [label="Fare_range <= 0.329\ngini = 0.444\nsamples = 3\nvalue = [2, 1]\nclass = Not Survived", fillcolor="#f2c09c"] ;
92 -> 94 ;
95 [label="gini = 0.5\nsamples = 2\nvalue = [1, 1]\nclass = Not Survived", fillcolor="#ffffff"] ;
94 -> 95 ;
96 [label="gini = 0.0\nsamples = 1\nvalue = [1, 0]\nclass = Not Survived", fillcolor="#e58139"] ;
94 -> 96 ;
97 [label="SibSp <= 0.886\ngini = 0.32\nsamples = 5\nvalue = [4, 1]\nclass = Not Survived", fillcolor="#eca06a"] ;
91 -> 97 ;
98 [label="gini = 0.0\nsamples = 4\nvalue = [4, 0]\nclass = Not Survived", fillcolor="#e58139"] ;
97 -> 98 ;
99 [label="gini = 0.0\nsamples = 1\nvalue = [0, 1]\nclass = Survived", fillcolor="#399de5"] ;
97 -> 99 ;
100 [label="Embarked <= 0.204\ngini = 0.18\nsamples = 10\nvalue = [9, 1]\nclass = Not Survived", fillcolor="#e88f4f"] ;
90 -> 100 ;
101 [label="Fare_range <= -0.617\ngini = 0.32\nsamples = 5\nvalue = [4, 1]\nclass = Not Survived", fillcolor="#eca06a"] ;
100 -> 101 ;
102 [label="gini = 0.0\nsamples = 1\nvalue = [1, 0]\nclass = Not Survived", fillcolor="#e58139"] ;
101 -> 102 ;
103 [label="Fare_range <= 0.566\ngini = 0.375\nsamples = 4\nvalue = [3, 1]\nclass = Not Survived", fillcolor="#eeab7b"] ;
101 -> 103 ;
104 [label="gini = 0.444\nsamples = 3\nvalue = [2, 1]\nclass = Not Survived", fillcolor="#f2c09c"] ;
103 -> 104 ;
105 [label="gini = 0.0\nsamples = 1\nvalue = [1, 0]\nclass = Not Survived", fillcolor="#e58139"] ;
103 -> 105 ;
106 [label="gini = 0.0\nsamples = 5\nvalue = [5, 0]\nclass = Not Survived", fillcolor="#e58139"] ;
100 -> 106 ;
107 [label="SibSp <= 0.886\ngini = 0.201\nsamples = 336\nvalue = [298, 38]\nclass = Not Survived", fillcolor="#e89152"] ;
89 -> 107 ;
108 [label="Fare_range <= 1.275\ngini = 0.209\nsamples = 321\nvalue = [283, 38]\nclass = Not Survived", fillcolor="#e89254"] ;
107 -> 108 ;
109 [label="Fare_range <= -0.144\ngini = 0.198\nsamples = 314\nvalue = [279, 35]\nclass = Not Survived", fillcolor="#e89152"] ;
108 -> 109 ;
110 [label="Parch <= 0.147\ngini = 0.213\nsamples = 280\nvalue = [246, 34]\nclass = Not Survived", fillcolor="#e99254"] ;
109 -> 110 ;
111 [label="Age_range <= 0.28\ngini = 0.203\nsamples = 271\nvalue = [240, 31]\nclass = Not Survived", fillcolor="#e89153"] ;
110 -> 111 ;
112 [label="Fare_range <= -1.09\ngini = 0.233\nsamples = 156\nvalue = [135, 21]\nclass = Not Survived", fillcolor="#e99558"] ;
111 -> 112 ;
113 [label="gini = 0.5\nsamples = 2\nvalue = [1, 1]\nclass = Not Survived", fillcolor="#ffffff"] ;
112 -> 113 ;
114 [label="Age_range <= -0.335\ngini = 0.226\nsamples = 154\nvalue = [134.0, 20.0]\nclass = Not Survived", fillcolor="#e99457"] ;
112 -> 114 ;
115 [label="Fare_range <= -0.617\ngini = 0.171\nsamples = 85\nvalue = [77, 8]\nclass = Not Survived", fillcolor="#e88e4e"] ;
114 -> 115 ;
116 [label="SibSp <= -0.021\ngini = 0.192\nsamples = 65\nvalue = [58, 7]\nclass = Not Survived", fillcolor="#e89051"] ;
115 -> 116 ;
117 [label="Age_range <= -0.949\ngini = 0.18\nsamples = 60\nvalue = [54, 6]\nclass = Not Survived", fillcolor="#e88f4f"] ;
116 -> 117 ;
118 [label="gini = 0.278\nsamples = 12\nvalue = [10, 2]\nclass = Not Survived", fillcolor="#ea9a61"] ;
117 -> 118 ;
119 [label="Embarked <= 0.204\ngini = 0.153\nsamples = 48\nvalue = [44, 4]\nclass = Not Survived", fillcolor="#e78c4b"] ;
117 -> 119 ;
120 [label="gini = 0.133\nsamples = 42\nvalue = [39, 3]\nclass = Not Survived", fillcolor="#e78b48"] ;
119 -> 120 ;
121 [label="Embarked <= 1.749\ngini = 0.278\nsamples = 6\nvalue = [5, 1]\nclass = Not Survived", fillcolor="#ea9a61"] ;
119 -> 121 ;
122 [label="gini = 0.444\nsamples = 3\nvalue = [2, 1]\nclass = Not Survived", fillcolor="#f2c09c"] ;
121 -> 122 ;
123 [label="gini = 0.0\nsamples = 3\nvalue = [3, 0]\nclass = Not Survived", fillcolor="#e58139"] ;
121 -> 123 ;
124 [label="Age_range <= -0.949\ngini = 0.32\nsamples = 5\nvalue = [4, 1]\nclass = Not Survived", fillcolor="#eca06a"] ;
116 -> 124 ;
125 [label="gini = 0.0\nsamples = 2\nvalue = [2, 0]\nclass = Not Survived", fillcolor="#e58139"] ;
124 -> 125 ;
126 [label="gini = 0.444\nsamples = 3\nvalue = [2, 1]\nclass = Not Survived", fillcolor="#f2c09c"] ;
124 -> 126 ;
127 [label="Pclass <= 0.229\ngini = 0.095\nsamples = 20\nvalue = [19, 1]\nclass = Not Survived", fillcolor="#e68843"] ;
115 -> 127 ;
128 [label="Age_range <= -0.949\ngini = 0.124\nsamples = 15\nvalue = [14, 1]\nclass = Not Survived", fillcolor="#e78a47"] ;
127 -> 128 ;
129 [label="gini = 0.0\nsamples = 3\nvalue = [3, 0]\nclass = Not Survived", fillcolor="#e58139"] ;
128 -> 129 ;
130 [label="SibSp <= -0.021\ngini = 0.153\nsamples = 12\nvalue = [11, 1]\nclass = Not Survived", fillcolor="#e78c4b"] ;
128 -> 130 ;
131 [label="Embarked <= 0.204\ngini = 0.165\nsamples = 11\nvalue = [10, 1]\nclass = Not Survived", fillcolor="#e88e4d"] ;
130 -> 131 ;
132 [label="gini = 0.18\nsamples = 10\nvalue = [9, 1]\nclass = Not Survived", fillcolor="#e88f4f"] ;
131 -> 132 ;
133 [label="gini = 0.0\nsamples = 1\nvalue = [1, 0]\nclass = Not Survived", fillcolor="#e58139"] ;
131 -> 133 ;
134 [label="gini = 0.0\nsamples = 1\nvalue = [1, 0]\nclass = Not Survived", fillcolor="#e58139"] ;
130 -> 134 ;
135 [label="gini = 0.0\nsamples = 5\nvalue = [5, 0]\nclass = Not Survived", fillcolor="#e58139"] ;
127 -> 135 ;
136 [label="Embarked <= 1.749\ngini = 0.287\nsamples = 69\nvalue = [57, 12]\nclass = Not Survived", fillcolor="#ea9c63"] ;
114 -> 136 ;
137 [label="Pclass <= 0.229\ngini = 0.274\nsamples = 67\nvalue = [56, 11]\nclass = Not Survived", fillcolor="#ea9a60"] ;
136 -> 137 ;
138 [label="gini = 0.133\nsamples = 14\nvalue = [13, 1]\nclass = Not Survived", fillcolor="#e78b48"] ;
137 -> 138 ;
139 [label="SibSp <= -0.021\ngini = 0.306\nsamples = 53\nvalue = [43, 10]\nclass = Not Survived", fillcolor="#eb9e67"] ;
137 -> 139 ;
140 [label="Fare_range <= -0.617\ngini = 0.33\nsamples = 48\nvalue = [38, 10]\nclass = Not Survived", fillcolor="#eca26d"] ;
139 -> 140 ;
141 [label="Embarked <= 0.204\ngini = 0.315\nsamples = 46\nvalue = [37, 9]\nclass = Not Survived", fillcolor="#eba069"] ;
140 -> 141 ;
142 [label="gini = 0.326\nsamples = 39\nvalue = [31.0, 8.0]\nclass = Not Survived", fillcolor="#eca26c"] ;
141 -> 142 ;
143 [label="gini = 0.245\nsamples = 7\nvalue = [6, 1]\nclass = Not Survived", fillcolor="#e9965a"] ;
141 -> 143 ;
144 [label="Embarked <= 0.204\ngini = 0.5\nsamples = 2\nvalue = [1, 1]\nclass = Not Survived", fillcolor="#ffffff"] ;
140 -> 144 ;
145 [label="gini = 0.0\nsamples = 1\nvalue = [1, 0]\nclass = Not Survived", fillcolor="#e58139"] ;
144 -> 145 ;
146 [label="gini = 0.0\nsamples = 1\nvalue = [0, 1]\nclass = Survived", fillcolor="#399de5"] ;
144 -> 146 ;
147 [label="gini = 0.0\nsamples = 5\nvalue = [5, 0]\nclass = Not Survived", fillcolor="#e58139"] ;
139 -> 147 ;
148 [label="gini = 0.5\nsamples = 2\nvalue = [1, 1]\nclass = Not Survived", fillcolor="#ffffff"] ;
136 -> 148 ;
149 [label="Pclass <= 0.229\ngini = 0.159\nsamples = 115\nvalue = [105, 10]\nclass = Not Survived", fillcolor="#e78d4c"] ;
111 -> 149 ;
150 [label="Embarked <= 0.204\ngini = 0.245\nsamples = 21\nvalue = [18, 3]\nclass = Not Survived", fillcolor="#e9965a"] ;
149 -> 150 ;
151 [label="Fare_range <= -0.854\ngini = 0.188\nsamples = 19\nvalue = [17, 2]\nclass = Not Survived", fillcolor="#e89050"] ;
150 -> 151 ;
152 [label="gini = 0.0\nsamples = 5\nvalue = [5, 0]\nclass = Not Survived", fillcolor="#e58139"] ;
151 -> 152 ;
153 [label="Age_range <= 0.894\ngini = 0.245\nsamples = 14\nvalue = [12, 2]\nclass = Not Survived", fillcolor="#e9965a"] ;
151 -> 153 ;
154 [label="gini = 0.165\nsamples = 11\nvalue = [10, 1]\nclass = Not Survived", fillcolor="#e88e4d"] ;
153 -> 154 ;
155 [label="gini = 0.444\nsamples = 3\nvalue = [2, 1]\nclass = Not Survived", fillcolor="#f2c09c"] ;
153 -> 155 ;
156 [label="Age_range <= 0.894\ngini = 0.5\nsamples = 2\nvalue = [1, 1]\nclass = Not Survived", fillcolor="#ffffff"] ;
150 -> 156 ;
157 [label="gini = 0.0\nsamples = 1\nvalue = [1, 0]\nclass = Not Survived", fillcolor="#e58139"] ;
156 -> 157 ;
158 [label="gini = 0.0\nsamples = 1\nvalue = [0, 1]\nclass = Survived", fillcolor="#399de5"] ;
156 -> 158 ;
159 [label="Fare_range <= -0.617\ngini = 0.138\nsamples = 94\nvalue = [87, 7]\nclass = Not Survived", fillcolor="#e78b49"] ;
149 -> 159 ;
160 [label="Age_range <= 0.894\ngini = 0.15\nsamples = 86\nvalue = [79.0, 7.0]\nclass = Not Survived", fillcolor="#e78c4b"] ;
159 -> 160 ;
161 [label="Embarked <= 0.204\ngini = 0.191\nsamples = 28\nvalue = [25, 3]\nclass = Not Survived", fillcolor="#e89051"] ;
160 -> 161 ;
162 [label="Fare_range <= -1.09\ngini = 0.211\nsamples = 25\nvalue = [22, 3]\nclass = Not Survived", fillcolor="#e99254"] ;
161 -> 162 ;
163 [label="gini = 0.0\nsamples = 2\nvalue = [2, 0]\nclass = Not Survived", fillcolor="#e58139"] ;
162 -> 163 ;
164 [label="Cabin <= 0.026\ngini = 0.227\nsamples = 23\nvalue = [20, 3]\nclass = Not Survived", fillcolor="#e99457"] ;
162 -> 164 ;
165 [label="gini = 0.0\nsamples = 1\nvalue = [1, 0]\nclass = Not Survived", fillcolor="#e58139"] ;
164 -> 165 ;
166 [label="gini = 0.236\nsamples = 22\nvalue = [19, 3]\nclass = Not Survived", fillcolor="#e99558"] ;
164 -> 166 ;
167 [label="gini = 0.0\nsamples = 3\nvalue = [3, 0]\nclass = Not Survived", fillcolor="#e58139"] ;
161 -> 167 ;
168 [label="Cabin <= 0.026\ngini = 0.128\nsamples = 58\nvalue = [54, 4]\nclass = Not Survived", fillcolor="#e78a48"] ;
160 -> 168 ;
169 [label="gini = 0.0\nsamples = 1\nvalue = [1, 0]\nclass = Not Survived", fillcolor="#e58139"] ;
168 -> 169 ;
170 [label="Embarked <= 1.749\ngini = 0.131\nsamples = 57\nvalue = [53, 4]\nclass = Not Survived", fillcolor="#e78b48"] ;
168 -> 170 ;
171 [label="Embarked <= 0.204\ngini = 0.136\nsamples = 41\nvalue = [38, 3]\nclass = Not Survived", fillcolor="#e78b49"] ;
170 -> 171 ;
172 [label="gini = 0.128\nsamples = 29\nvalue = [27, 2]\nclass = Not Survived", fillcolor="#e78a48"] ;
171 -> 172 ;
173 [label="gini = 0.153\nsamples = 12\nvalue = [11, 1]\nclass = Not Survived", fillcolor="#e78c4b"] ;
171 -> 173 ;
174 [label="gini = 0.117\nsamples = 16\nvalue = [15, 1]\nclass = Not Survived", fillcolor="#e78946"] ;
170 -> 174 ;
175 [label="gini = 0.0\nsamples = 8\nvalue = [8, 0]\nclass = Not Survived", fillcolor="#e58139"] ;
159 -> 175 ;
176 [label="Age_range <= 0.894\ngini = 0.444\nsamples = 9\nvalue = [6, 3]\nclass = Not Survived", fillcolor="#f2c09c"] ;
110 -> 176 ;
177 [label="Age_range <= -0.335\ngini = 0.245\nsamples = 7\nvalue = [6, 1]\nclass = Not Survived", fillcolor="#e9965a"] ;
176 -> 177 ;
178 [label="Age_range <= -0.949\ngini = 0.5\nsamples = 2\nvalue = [1, 1]\nclass = Not Survived", fillcolor="#ffffff"] ;
177 -> 178 ;
179 [label="gini = 0.0\nsamples = 1\nvalue = [1, 0]\nclass = Not Survived", fillcolor="#e58139"] ;
178 -> 179 ;
180 [label="gini = 0.0\nsamples = 1\nvalue = [0, 1]\nclass = Survived", fillcolor="#399de5"] ;
178 -> 180 ;
181 [label="gini = 0.0\nsamples = 5\nvalue = [5, 0]\nclass = Not Survived", fillcolor="#e58139"] ;
177 -> 181 ;
182 [label="gini = 0.0\nsamples = 2\nvalue = [0, 2]\nclass = Survived", fillcolor="#399de5"] ;
176 -> 182 ;
183 [label="Parch <= 0.147\ngini = 0.057\nsamples = 34\nvalue = [33, 1]\nclass = Not Survived", fillcolor="#e6853f"] ;
109 -> 183 ;
184 [label="SibSp <= -0.021\ngini = 0.105\nsamples = 18\nvalue = [17, 1]\nclass = Not Survived", fillcolor="#e78845"] ;
183 -> 184 ;
185 [label="gini = 0.0\nsamples = 8\nvalue = [8, 0]\nclass = Not Survived", fillcolor="#e58139"] ;
184 -> 185 ;
186 [label="Embarked <= 0.204\ngini = 0.18\nsamples = 10\nvalue = [9, 1]\nclass = Not Survived", fillcolor="#e88f4f"] ;
184 -> 186 ;
187 [label="Age_range <= 0.28\ngini = 0.245\nsamples = 7\nvalue = [6, 1]\nclass = Not Survived", fillcolor="#e9965a"] ;
186 -> 187 ;
188 [label="gini = 0.32\nsamples = 5\nvalue = [4, 1]\nclass = Not Survived", fillcolor="#eca06a"] ;
187 -> 188 ;
189 [label="gini = 0.0\nsamples = 2\nvalue = [2, 0]\nclass = Not Survived", fillcolor="#e58139"] ;
187 -> 189 ;
190 [label="gini = 0.0\nsamples = 3\nvalue = [3, 0]\nclass = Not Survived", fillcolor="#e58139"] ;
186 -> 190 ;
191 [label="gini = 0.0\nsamples = 16\nvalue = [16, 0]\nclass = Not Survived", fillcolor="#e58139"] ;
183 -> 191 ;
192 [label="Age_range <= -0.335\ngini = 0.49\nsamples = 7\nvalue = [4, 3]\nclass = Not Survived", fillcolor="#f8e0ce"] ;
108 -> 192 ;
193 [label="gini = 0.0\nsamples = 2\nvalue = [2, 0]\nclass = Not Survived", fillcolor="#e58139"] ;
192 -> 193 ;
194 [label="Age_range <= 0.587\ngini = 0.48\nsamples = 5\nvalue = [2, 3]\nclass = Survived", fillcolor="#bddef6"] ;
192 -> 194 ;
195 [label="gini = 0.444\nsamples = 3\nvalue = [1, 2]\nclass = Survived", fillcolor="#9ccef2"] ;
194 -> 195 ;
196 [label="gini = 0.5\nsamples = 2\nvalue = [1, 1]\nclass = Not Survived", fillcolor="#ffffff"] ;
194 -> 196 ;
197 [label="gini = 0.0\nsamples = 15\nvalue = [15, 0]\nclass = Not Survived", fillcolor="#e58139"] ;
107 -> 197 ;
198 [label="Pclass <= 0.229\ngini = 0.38\nsamples = 247\nvalue = [63.0, 184.0]\nclass = Survived", fillcolor="#7dbfee"] ;
0 -> 198 [labeldistance=2.5, labelangle=-45, headlabel="False"] ;
199 [label="Fare_range <= 0.329\ngini = 0.114\nsamples = 132\nvalue = [8, 124]\nclass = Survived", fillcolor="#46a3e7"] ;
198 -> 199 ;
200 [label="Age_range <= 0.28\ngini = 0.194\nsamples = 55\nvalue = [6, 49]\nclass = Survived", fillcolor="#51a9e8"] ;
199 -> 200 ;
201 [label="Parch <= 0.147\ngini = 0.105\nsamples = 36\nvalue = [2, 34]\nclass = Survived", fillcolor="#45a3e7"] ;
200 -> 201 ;
202 [label="Cabin <= 0.026\ngini = 0.165\nsamples = 22\nvalue = [2, 20]\nclass = Survived", fillcolor="#4da7e8"] ;
201 -> 202 ;
203 [label="gini = 0.0\nsamples = 5\nvalue = [0, 5]\nclass = Survived", fillcolor="#399de5"] ;
202 -> 203 ;
204 [label="Embarked <= 0.204\ngini = 0.208\nsamples = 17\nvalue = [2, 15]\nclass = Survived", fillcolor="#53aae8"] ;
202 -> 204 ;
205 [label="SibSp <= -0.021\ngini = 0.245\nsamples = 14\nvalue = [2, 12]\nclass = Survived", fillcolor="#5aade9"] ;
204 -> 205 ;
206 [label="Age_range <= -0.335\ngini = 0.198\nsamples = 9\nvalue = [1, 8]\nclass = Survived", fillcolor="#52a9e8"] ;
205 -> 206 ;
207 [label="Fare_range <= -0.144\ngini = 0.375\nsamples = 4\nvalue = [1, 3]\nclass = Survived", fillcolor="#7bbeee"] ;
206 -> 207 ;
208 [label="Age_range <= -0.949\ngini = 0.444\nsamples = 3\nvalue = [1, 2]\nclass = Survived", fillcolor="#9ccef2"] ;
207 -> 208 ;
209 [label="gini = 0.0\nsamples = 1\nvalue = [0, 1]\nclass = Survived", fillcolor="#399de5"] ;
208 -> 209 ;
210 [label="gini = 0.5\nsamples = 2\nvalue = [1, 1]\nclass = Not Survived", fillcolor="#ffffff"] ;
208 -> 210 ;
211 [label="gini = 0.0\nsamples = 1\nvalue = [0, 1]\nclass = Survived", fillcolor="#399de5"] ;
207 -> 211 ;
212 [label="gini = 0.0\nsamples = 5\nvalue = [0, 5]\nclass = Survived", fillcolor="#399de5"] ;
206 -> 212 ;
213 [label="Age_range <= -0.335\ngini = 0.32\nsamples = 5\nvalue = [1, 4]\nclass = Survived", fillcolor="#6ab6ec"] ;
205 -> 213 ;
214 [label="gini = 0.0\nsamples = 1\nvalue = [0, 1]\nclass = Survived", fillcolor="#399de5"] ;
213 -> 214 ;
215 [label="gini = 0.375\nsamples = 4\nvalue = [1, 3]\nclass = Survived", fillcolor="#7bbeee"] ;
213 -> 215 ;
216 [label="gini = 0.0\nsamples = 3\nvalue = [0, 3]\nclass = Survived", fillcolor="#399de5"] ;
204 -> 216 ;
217 [label="gini = 0.0\nsamples = 14\nvalue = [0, 14]\nclass = Survived", fillcolor="#399de5"] ;
201 -> 217 ;
218 [label="Parch <= 0.147\ngini = 0.332\nsamples = 19\nvalue = [4, 15]\nclass = Survived", fillcolor="#6eb7ec"] ;
200 -> 218 ;
219 [label="SibSp <= -0.021\ngini = 0.375\nsamples = 16\nvalue = [4, 12]\nclass = Survived", fillcolor="#7bbeee"] ;
218 -> 219 ;
220 [label="Cabin <= -0.216\ngini = 0.337\nsamples = 14\nvalue = [3, 11]\nclass = Survived", fillcolor="#6fb8ec"] ;
219 -> 220 ;
221 [label="Cabin <= -1.187\ngini = 0.408\nsamples = 7\nvalue = [2, 5]\nclass = Survived", fillcolor="#88c4ef"] ;
220 -> 221 ;
222 [label="Embarked <= 0.204\ngini = 0.32\nsamples = 5\nvalue = [1, 4]\nclass = Survived", fillcolor="#6ab6ec"] ;
221 -> 222 ;
223 [label="gini = 0.0\nsamples = 3\nvalue = [0, 3]\nclass = Survived", fillcolor="#399de5"] ;
222 -> 223 ;
224 [label="Cabin <= -2.157\ngini = 0.5\nsamples = 2\nvalue = [1, 1]\nclass = Not Survived", fillcolor="#ffffff"] ;
222 -> 224 ;
225 [label="gini = 0.0\nsamples = 1\nvalue = [0, 1]\nclass = Survived", fillcolor="#399de5"] ;
224 -> 225 ;
226 [label="gini = 0.0\nsamples = 1\nvalue = [1, 0]\nclass = Not Survived", fillcolor="#e58139"] ;
224 -> 226 ;
227 [label="Age_range <= 0.894\ngini = 0.5\nsamples = 2\nvalue = [1, 1]\nclass = Not Survived", fillcolor="#ffffff"] ;
221 -> 227 ;
228 [label="gini = 0.0\nsamples = 1\nvalue = [1, 0]\nclass = Not Survived", fillcolor="#e58139"] ;
227 -> 228 ;
229 [label="gini = 0.0\nsamples = 1\nvalue = [0, 1]\nclass = Survived", fillcolor="#399de5"] ;
227 -> 229 ;
230 [label="gini = 0.245\nsamples = 7\nvalue = [1, 6]\nclass = Survived", fillcolor="#5aade9"] ;
220 -> 230 ;
231 [label="gini = 0.5\nsamples = 2\nvalue = [1, 1]\nclass = Not Survived", fillcolor="#ffffff"] ;
219 -> 231 ;
232 [label="gini = 0.0\nsamples = 3\nvalue = [0, 3]\nclass = Survived", fillcolor="#399de5"] ;
218 -> 232 ;
233 [label="Age_range <= -2.178\ngini = 0.051\nsamples = 77\nvalue = [2, 75]\nclass = Survived", fillcolor="#3ea0e6"] ;
199 -> 233 ;
234 [label="Pclass <= -0.968\ngini = 0.444\nsamples = 3\nvalue = [1, 2]\nclass = Survived", fillcolor="#9ccef2"] ;
233 -> 234 ;
235 [label="gini = 0.0\nsamples = 1\nvalue = [1, 0]\nclass = Not Survived", fillcolor="#e58139"] ;
234 -> 235 ;
236 [label="gini = 0.0\nsamples = 2\nvalue = [0, 2]\nclass = Survived", fillcolor="#399de5"] ;
234 -> 236 ;
237 [label="Parch <= 1.388\ngini = 0.027\nsamples = 74\nvalue = [1, 73]\nclass = Survived", fillcolor="#3c9ee5"] ;
233 -> 237 ;
238 [label="gini = 0.0\nsamples = 62\nvalue = [0, 62]\nclass = Survived", fillcolor="#399de5"] ;
237 -> 238 ;
239 [label="Cabin <= -2.157\ngini = 0.153\nsamples = 12\nvalue = [1, 11]\nclass = Survived", fillcolor="#4ba6e7"] ;
237 -> 239 ;
240 [label="gini = 0.0\nsamples = 5\nvalue = [0, 5]\nclass = Survived", fillcolor="#399de5"] ;
239 -> 240 ;
241 [label="Cabin <= -1.429\ngini = 0.245\nsamples = 7\nvalue = [1, 6]\nclass = Survived", fillcolor="#5aade9"] ;
239 -> 241 ;
242 [label="SibSp <= 1.34\ngini = 0.444\nsamples = 3\nvalue = [1, 2]\nclass = Survived", fillcolor="#9ccef2"] ;
241 -> 242 ;
243 [label="gini = 0.0\nsamples = 1\nvalue = [1, 0]\nclass = Not Survived", fillcolor="#e58139"] ;
242 -> 243 ;
244 [label="gini = 0.0\nsamples = 2\nvalue = [0, 2]\nclass = Survived", fillcolor="#399de5"] ;
242 -> 244 ;
245 [label="gini = 0.0\nsamples = 4\nvalue = [0, 4]\nclass = Survived", fillcolor="#399de5"] ;
241 -> 245 ;
246 [label="Embarked <= 0.204\ngini = 0.499\nsamples = 115\nvalue = [55, 60]\nclass = Survived", fillcolor="#eff7fd"] ;
198 -> 246 ;
247 [label="Fare_range <= -0.144\ngini = 0.472\nsamples = 68\nvalue = [42, 26]\nclass = Not Survived", fillcolor="#f5cfb4"] ;
246 -> 247 ;
248 [label="Parch <= 0.147\ngini = 0.499\nsamples = 42\nvalue = [20, 22]\nclass = Survived", fillcolor="#edf6fd"] ;
247 -> 248 ;
249 [label="Age_range <= -1.871\ngini = 0.496\nsamples = 33\nvalue = [18, 15]\nclass = Not Survived", fillcolor="#fbeade"] ;
248 -> 249 ;
250 [label="gini = 0.0\nsamples = 1\nvalue = [0, 1]\nclass = Survived", fillcolor="#399de5"] ;
249 -> 250 ;
251 [label="SibSp <= 0.886\ngini = 0.492\nsamples = 32\nvalue = [18, 14]\nclass = Not Survived", fillcolor="#f9e3d3"] ;
249 -> 251 ;
252 [label="Fare_range <= -0.617\ngini = 0.495\nsamples = 31\nvalue = [17, 14]\nclass = Not Survived", fillcolor="#fae9dc"] ;
251 -> 252 ;
253 [label="Age_range <= 0.28\ngini = 0.499\nsamples = 23\nvalue = [12, 11]\nclass = Not Survived", fillcolor="#fdf5ef"] ;
252 -> 253 ;
254 [label="SibSp <= -0.021\ngini = 0.495\nsamples = 20\nvalue = [9, 11]\nclass = Survived", fillcolor="#dbedfa"] ;
253 -> 254 ;
255 [label="Age_range <= -0.949\ngini = 0.484\nsamples = 17\nvalue = [7, 10]\nclass = Survived", fillcolor="#c4e2f7"] ;
254 -> 255 ;
256 [label="gini = 0.444\nsamples = 3\nvalue = [1, 2]\nclass = Survived", fillcolor="#9ccef2"] ;
255 -> 256 ;
257 [label="Age_range <= -0.335\ngini = 0.49\nsamples = 14\nvalue = [6, 8]\nclass = Survived", fillcolor="#cee6f8"] ;
255 -> 257 ;
258 [label="gini = 0.49\nsamples = 7\nvalue = [3, 4]\nclass = Survived", fillcolor="#cee6f8"] ;
257 -> 258 ;
259 [label="gini = 0.49\nsamples = 7\nvalue = [3, 4]\nclass = Survived", fillcolor="#cee6f8"] ;
257 -> 259 ;
260 [label="gini = 0.444\nsamples = 3\nvalue = [2, 1]\nclass = Not Survived", fillcolor="#f2c09c"] ;
254 -> 260 ;
261 [label="gini = 0.0\nsamples = 3\nvalue = [3, 0]\nclass = Not Survived", fillcolor="#e58139"] ;
253 -> 261 ;
262 [label="Age_range <= 0.28\ngini = 0.469\nsamples = 8\nvalue = [5, 3]\nclass = Not Survived", fillcolor="#f5cdb0"] ;
252 -> 262 ;
263 [label="gini = 0.0\nsamples = 4\nvalue = [4, 0]\nclass = Not Survived", fillcolor="#e58139"] ;
262 -> 263 ;
264 [label="Age_range <= 0.894\ngini = 0.375\nsamples = 4\nvalue = [1, 3]\nclass = Survived", fillcolor="#7bbeee"] ;
262 -> 264 ;
265 [label="gini = 0.5\nsamples = 2\nvalue = [1, 1]\nclass = Not Survived", fillcolor="#ffffff"] ;
264 -> 265 ;
266 [label="gini = 0.0\nsamples = 2\nvalue = [0, 2]\nclass = Survived", fillcolor="#399de5"] ;
264 -> 266 ;
267 [label="gini = 0.0\nsamples = 1\nvalue = [1, 0]\nclass = Not Survived", fillcolor="#e58139"] ;
251 -> 267 ;
268 [label="Age_range <= -0.335\ngini = 0.346\nsamples = 9\nvalue = [2, 7]\nclass = Survived", fillcolor="#72b9ec"] ;
248 -> 268 ;
269 [label="Cabin <= 0.269\ngini = 0.245\nsamples = 7\nvalue = [1, 6]\nclass = Survived", fillcolor="#5aade9"] ;
268 -> 269 ;
270 [label="Age_range <= -1.564\ngini = 0.444\nsamples = 3\nvalue = [1, 2]\nclass = Survived", fillcolor="#9ccef2"] ;
269 -> 270 ;
271 [label="SibSp <= -0.021\ngini = 0.5\nsamples = 2\nvalue = [1, 1]\nclass = Not Survived", fillcolor="#ffffff"] ;
270 -> 271 ;
272 [label="gini = 0.0\nsamples = 1\nvalue = [1, 0]\nclass = Not Survived", fillcolor="#e58139"] ;
271 -> 272 ;
273 [label="gini = 0.0\nsamples = 1\nvalue = [0, 1]\nclass = Survived", fillcolor="#399de5"] ;
271 -> 273 ;
274 [label="gini = 0.0\nsamples = 1\nvalue = [0, 1]\nclass = Survived", fillcolor="#399de5"] ;
270 -> 274 ;
275 [label="gini = 0.0\nsamples = 4\nvalue = [0, 4]\nclass = Survived", fillcolor="#399de5"] ;
269 -> 275 ;
276 [label="Cabin <= -0.216\ngini = 0.5\nsamples = 2\nvalue = [1, 1]\nclass = Not Survived", fillcolor="#ffffff"] ;
268 -> 276 ;
277 [label="gini = 0.0\nsamples = 1\nvalue = [0, 1]\nclass = Survived", fillcolor="#399de5"] ;
276 -> 277 ;
278 [label="gini = 0.0\nsamples = 1\nvalue = [1, 0]\nclass = Not Survived", fillcolor="#e58139"] ;
276 -> 278 ;
279 [label="Age_range <= -2.178\ngini = 0.26\nsamples = 26\nvalue = [22, 4]\nclass = Not Survived", fillcolor="#ea985d"] ;
247 -> 279 ;
280 [label="SibSp <= 0.886\ngini = 0.5\nsamples = 4\nvalue = [2, 2]\nclass = Not Survived", fillcolor="#ffffff"] ;
279 -> 280 ;
281 [label="gini = 0.0\nsamples = 1\nvalue = [0, 1]\nclass = Survived", fillcolor="#399de5"] ;
280 -> 281 ;
282 [label="Fare_range <= 0.329\ngini = 0.444\nsamples = 3\nvalue = [2, 1]\nclass = Not Survived", fillcolor="#f2c09c"] ;
280 -> 282 ;
283 [label="gini = 0.0\nsamples = 1\nvalue = [1, 0]\nclass = Not Survived", fillcolor="#e58139"] ;
282 -> 283 ;
284 [label="gini = 0.5\nsamples = 2\nvalue = [1, 1]\nclass = Not Survived", fillcolor="#ffffff"] ;
282 -> 284 ;
285 [label="SibSp <= 0.886\ngini = 0.165\nsamples = 22\nvalue = [20, 2]\nclass = Not Survived", fillcolor="#e88e4d"] ;
279 -> 285 ;
286 [label="Parch <= 1.388\ngini = 0.32\nsamples = 10\nvalue = [8, 2]\nclass = Not Survived", fillcolor="#eca06a"] ;
285 -> 286 ;
287 [label="gini = 0.5\nsamples = 2\nvalue = [1, 1]\nclass = Not Survived", fillcolor="#ffffff"] ;
286 -> 287 ;
288 [label="Parch <= 5.112\ngini = 0.219\nsamples = 8\nvalue = [7, 1]\nclass = Not Survived", fillcolor="#e99355"] ;
286 -> 288 ;
289 [label="gini = 0.0\nsamples = 5\nvalue = [5, 0]\nclass = Not Survived", fillcolor="#e58139"] ;
288 -> 289 ;
290 [label="Parch <= 6.353\ngini = 0.444\nsamples = 3\nvalue = [2, 1]\nclass = Not Survived", fillcolor="#f2c09c"] ;
288 -> 290 ;
291 [label="gini = 0.5\nsamples = 2\nvalue = [1, 1]\nclass = Not Survived", fillcolor="#ffffff"] ;
290 -> 291 ;
292 [label="gini = 0.0\nsamples = 1\nvalue = [1, 0]\nclass = Not Survived", fillcolor="#e58139"] ;
290 -> 292 ;
293 [label="gini = 0.0\nsamples = 12\nvalue = [12, 0]\nclass = Not Survived", fillcolor="#e58139"] ;
285 -> 293 ;
294 [label="Fare_range <= -0.617\ngini = 0.4\nsamples = 47\nvalue = [13, 34]\nclass = Survived", fillcolor="#85c2ef"] ;
246 -> 294 ;
295 [label="Parch <= 0.768\ngini = 0.269\nsamples = 25\nvalue = [4, 21]\nclass = Survived", fillcolor="#5fb0ea"] ;
294 -> 295 ;
296 [label="Age_range <= -0.335\ngini = 0.219\nsamples = 24\nvalue = [3, 21]\nclass = Survived", fillcolor="#55abe9"] ;
295 -> 296 ;
297 [label="gini = 0.0\nsamples = 6\nvalue = [0, 6]\nclass = Survived", fillcolor="#399de5"] ;
296 -> 297 ;
298 [label="Age_range <= 0.587\ngini = 0.278\nsamples = 18\nvalue = [3, 15]\nclass = Survived", fillcolor="#61b1ea"] ;
296 -> 298 ;
299 [label="gini = 0.0\nsamples = 1\nvalue = [1, 0]\nclass = Not Survived", fillcolor="#e58139"] ;
298 -> 299 ;
300 [label="Embarked <= 1.749\ngini = 0.208\nsamples = 17\nvalue = [2, 15]\nclass = Survived", fillcolor="#53aae8"] ;
298 -> 300 ;
301 [label="gini = 0.0\nsamples = 1\nvalue = [0, 1]\nclass = Survived", fillcolor="#399de5"] ;
300 -> 301 ;
302 [label="gini = 0.219\nsamples = 16\nvalue = [2, 14]\nclass = Survived", fillcolor="#55abe9"] ;
300 -> 302 ;
303 [label="gini = 0.0\nsamples = 1\nvalue = [1, 0]\nclass = Not Survived", fillcolor="#e58139"] ;
295 -> 303 ;
304 [label="Age_range <= -2.178\ngini = 0.483\nsamples = 22\nvalue = [9, 13]\nclass = Survived", fillcolor="#c2e1f7"] ;
294 -> 304 ;
305 [label="gini = 0.0\nsamples = 4\nvalue = [0, 4]\nclass = Survived", fillcolor="#399de5"] ;
304 -> 305 ;
306 [label="Fare_range <= -0.144\ngini = 0.5\nsamples = 18\nvalue = [9, 9]\nclass = Not Survived", fillcolor="#ffffff"] ;
304 -> 306 ;
307 [label="Parch <= 2.63\ngini = 0.473\nsamples = 13\nvalue = [8, 5]\nclass = Not Survived", fillcolor="#f5d0b5"] ;
306 -> 307 ;
308 [label="Parch <= 0.147\ngini = 0.444\nsamples = 12\nvalue = [8, 4]\nclass = Not Survived", fillcolor="#f2c09c"] ;
307 -> 308 ;
309 [label="Embarked <= 1.749\ngini = 0.5\nsamples = 8\nvalue = [4, 4]\nclass = Not Survived", fillcolor="#ffffff"] ;
308 -> 309 ;
310 [label="Age_range <= -0.028\ngini = 0.444\nsamples = 6\nvalue = [4, 2]\nclass = Not Survived", fillcolor="#f2c09c"] ;
309 -> 310 ;
311 [label="SibSp <= -0.021\ngini = 0.5\nsamples = 4\nvalue = [2, 2]\nclass = Not Survived", fillcolor="#ffffff"] ;
310 -> 311 ;
312 [label="gini = 0.0\nsamples = 1\nvalue = [1, 0]\nclass = Not Survived", fillcolor="#e58139"] ;
311 -> 312 ;
313 [label="gini = 0.444\nsamples = 3\nvalue = [1, 2]\nclass = Survived", fillcolor="#9ccef2"] ;
311 -> 313 ;
314 [label="gini = 0.0\nsamples = 2\nvalue = [2, 0]\nclass = Not Survived", fillcolor="#e58139"] ;
310 -> 314 ;
315 [label="gini = 0.0\nsamples = 2\nvalue = [0, 2]\nclass = Survived", fillcolor="#399de5"] ;
309 -> 315 ;
316 [label="gini = 0.0\nsamples = 4\nvalue = [4, 0]\nclass = Not Survived", fillcolor="#e58139"] ;
308 -> 316 ;
317 [label="gini = 0.0\nsamples = 1\nvalue = [0, 1]\nclass = Survived", fillcolor="#399de5"] ;
307 -> 317 ;
318 [label="Age_range <= 0.894\ngini = 0.32\nsamples = 5\nvalue = [1, 4]\nclass = Survived", fillcolor="#6ab6ec"] ;
306 -> 318 ;
319 [label="gini = 0.0\nsamples = 1\nvalue = [1, 0]\nclass = Not Survived", fillcolor="#e58139"] ;
318 -> 319 ;
320 [label="gini = 0.0\nsamples = 4\nvalue = [0, 4]\nclass = Survived", fillcolor="#399de5"] ;
318 -> 320 ;
}